digraph Tree {
node [shape=box] ;
0 [label="X[0] <= 0.5\ngini = 0.425\nsamples = 700\nvalue = [214, 486]"] ;
1 [label="X[4] <= 4152.0\ngini = 0.219\nsamples = 272\nvalue = [34, 238]"] ;
0 -> 1 [labeldistance=2.5, labelangle=45, headlabel="True"] ;
2 [label="X[12] <= 19.5\ngini = 0.158\nsamples = 208\nvalue = [18, 190]"] ;
1 -> 2 ;
3 [label="gini = 0.0\nsamples = 1\nvalue = [1, 0]"] ;
2 -> 3 ;
4 [label="X[1] <= 16.5\ngini = 0.151\nsamples = 207\nvalue = [17, 190]"] ;
2 -> 4 ;
5 [label="X[11] <= 1.5\ngini = 0.085\nsamples = 113\nvalue = [5, 108]"] ;
4 -> 5 ;
6 [label="X[12] <= 34.0\ngini = 0.193\nsamples = 37\nvalue = [4, 33]"] ;
5 -> 6 ;
7 [label="X[5] <= 2.5\ngini = 0.397\nsamples = 11\nvalue = [3, 8]"] ;
6 -> 7 ;
8 [label="X[8] <= 1.0\ngini = 0.48\nsamples = 5\nvalue = [3, 2]"] ;
7 -> 8 ;
9 [label="gini = 0.0\nsamples = 2\nvalue = [2, 0]"] ;
8 -> 9 ;
10 [label="X[9] <= 1.5\ngini = 0.444\nsamples = 3\nvalue = [1, 2]"] ;
8 -> 10 ;
11 [label="gini = 0.0\nsamples = 1\nvalue = [1, 0]"] ;
10 -> 11 ;
12 [label="gini = 0.0\nsamples = 2\nvalue = [0, 2]"] ;
10 -> 12 ;
13 [label="gini = 0.0\nsamples = 6\nvalue = [0, 6]"] ;
7 -> 13 ;
14 [label="X[3] <= 7.5\ngini = 0.074\nsamples = 26\nvalue = [1, 25]"] ;
6 -> 14 ;
15 [label="gini = 0.0\nsamples = 24\nvalue = [0, 24]"] ;
14 -> 15 ;
16 [label="X[14] <= 0.5\ngini = 0.5\nsamples = 2\nvalue = [1, 1]"] ;
14 -> 16 ;
17 [label="gini = 0.0\nsamples = 1\nvalue = [1, 0]"] ;
16 -> 17 ;
18 [label="gini = 0.0\nsamples = 1\nvalue = [0, 1]"] ;
16 -> 18 ;
19 [label="X[12] <= 22.5\ngini = 0.026\nsamples = 76\nvalue = [1, 75]"] ;
5 -> 19 ;
20 [label="X[12] <= 21.5\ngini = 0.32\nsamples = 5\nvalue = [1, 4]"] ;
19 -> 20 ;
21 [label="gini = 0.0\nsamples = 4\nvalue = [0, 4]"] ;
20 -> 21 ;
22 [label="gini = 0.0\nsamples = 1\nvalue = [1, 0]"] ;
20 -> 22 ;
23 [label="gini = 0.0\nsamples = 71\nvalue = [0, 71]"] ;
19 -> 23 ;
24 [label="X[12] <= 23.5\ngini = 0.223\nsamples = 94\nvalue = [12, 82]"] ;
4 -> 24 ;
25 [label="gini = 0.0\nsamples = 2\nvalue = [2, 0]"] ;
24 -> 25 ;
26 [label="X[1] <= 19.0\ngini = 0.194\nsamples = 92\nvalue = [10, 82]"] ;
24 -> 26 ;
27 [label="X[10] <= 2.5\ngini = 0.36\nsamples = 17\nvalue = [4, 13]"] ;
26 -> 27 ;
28 [label="X[8] <= 1.5\ngini = 0.48\nsamples = 10\nvalue = [4, 6]"] ;
27 -> 28 ;
29 [label="gini = 0.0\nsamples = 3\nvalue = [0, 3]"] ;
28 -> 29 ;
30 [label="X[18] <= 0.5\ngini = 0.49\nsamples = 7\nvalue = [4, 3]"] ;
28 -> 30 ;
31 [label="gini = 0.0\nsamples = 3\nvalue = [3, 0]"] ;
30 -> 31 ;
32 [label="X[12] <= 29.0\ngini = 0.375\nsamples = 4\nvalue = [1, 3]"] ;
30 -> 32 ;
33 [label="gini = 0.0\nsamples = 1\nvalue = [1, 0]"] ;
32 -> 33 ;
34 [label="gini = 0.0\nsamples = 3\nvalue = [0, 3]"] ;
32 -> 34 ;
35 [label="gini = 0.0\nsamples = 7\nvalue = [0, 7]"] ;
27 -> 35 ;
36 [label="X[2] <= 1.5\ngini = 0.147\nsamples = 75\nvalue = [6, 69]"] ;
26 -> 36 ;
37 [label="gini = 0.0\nsamples = 27\nvalue = [0, 27]"] ;
36 -> 37 ;
38 [label="X[16] <= 2.5\ngini = 0.219\nsamples = 48\nvalue = [6, 42]"] ;
36 -> 38 ;
39 [label="X[17] <= 1.5\ngini = 0.397\nsamples = 11\nvalue = [3, 8]"] ;
38 -> 39 ;
40 [label="X[4] <= 3171.0\ngini = 0.198\nsamples = 9\nvalue = [1, 8]"] ;
39 -> 40 ;
41 [label="gini = 0.0\nsamples = 7\nvalue = [0, 7]"] ;
40 -> 41 ;
42 [label="X[12] <= 36.5\ngini = 0.5\nsamples = 2\nvalue = [1, 1]"] ;
40 -> 42 ;
43 [label="gini = 0.0\nsamples = 1\nvalue = [1, 0]"] ;
42 -> 43 ;
44 [label="gini = 0.0\nsamples = 1\nvalue = [0, 1]"] ;
42 -> 44 ;
45 [label="gini = 0.0\nsamples = 2\nvalue = [2, 0]"] ;
39 -> 45 ;
46 [label="X[3] <= 3.5\ngini = 0.149\nsamples = 37\nvalue = [3, 34]"] ;
38 -> 46 ;
47 [label="gini = 0.0\nsamples = 17\nvalue = [0, 17]"] ;
46 -> 47 ;
48 [label="X[14] <= 0.5\ngini = 0.255\nsamples = 20\nvalue = [3, 17]"] ;
46 -> 48 ;
49 [label="gini = 0.0\nsamples = 1\nvalue = [1, 0]"] ;
48 -> 49 ;
50 [label="X[15] <= 1.5\ngini = 0.188\nsamples = 19\nvalue = [2, 17]"] ;
48 -> 50 ;
51 [label="gini = 0.0\nsamples = 13\nvalue = [0, 13]"] ;
50 -> 51 ;
52 [label="X[7] <= 3.5\ngini = 0.444\nsamples = 6\nvalue = [2, 4]"] ;
50 -> 52 ;
53 [label="gini = 0.0\nsamples = 2\nvalue = [2, 0]"] ;
52 -> 53 ;
54 [label="gini = 0.0\nsamples = 4\nvalue = [0, 4]"] ;
52 -> 54 ;
55 [label="X[12] <= 28.5\ngini = 0.375\nsamples = 64\nvalue = [16, 48]"] ;
1 -> 55 ;
56 [label="X[15] <= 1.5\ngini = 0.498\nsamples = 15\nvalue = [7, 8]"] ;
55 -> 56 ;
57 [label="gini = 0.0\nsamples = 5\nvalue = [0, 5]"] ;
56 -> 57 ;
58 [label="X[8] <= 2.0\ngini = 0.42\nsamples = 10\nvalue = [7, 3]"] ;
56 -> 58 ;
59 [label="gini = 0.0\nsamples = 4\nvalue = [4, 0]"] ;
58 -> 59 ;
60 [label="X[18] <= 0.5\ngini = 0.5\nsamples = 6\nvalue = [3, 3]"] ;
58 -> 60 ;
61 [label="gini = 0.0\nsamples = 1\nvalue = [0, 1]"] ;
60 -> 61 ;
62 [label="X[3] <= 4.5\ngini = 0.48\nsamples = 5\nvalue = [3, 2]"] ;
60 -> 62 ;
63 [label="gini = 0.0\nsamples = 2\nvalue = [2, 0]"] ;
62 -> 63 ;
64 [label="X[6] <= 0.5\ngini = 0.444\nsamples = 3\nvalue = [1, 2]"] ;
62 -> 64 ;
65 [label="gini = 0.0\nsamples = 1\nvalue = [1, 0]"] ;
64 -> 65 ;
66 [label="gini = 0.0\nsamples = 2\nvalue = [0, 2]"] ;
64 -> 66 ;
67 [label="X[1] <= 22.5\ngini = 0.3\nsamples = 49\nvalue = [9, 40]"] ;
55 -> 67 ;
68 [label="X[16] <= 1.0\ngini = 0.496\nsamples = 11\nvalue = [5, 6]"] ;
67 -> 68 ;
69 [label="gini = 0.0\nsamples = 3\nvalue = [3, 0]"] ;
68 -> 69 ;
70 [label="X[12] <= 58.5\ngini = 0.375\nsamples = 8\nvalue = [2, 6]"] ;
68 -> 70 ;
71 [label="X[2] <= 3.5\ngini = 0.245\nsamples = 7\nvalue = [1, 6]"] ;
70 -> 71 ;
72 [label="gini = 0.0\nsamples = 6\nvalue = [0, 6]"] ;
71 -> 72 ;
73 [label="gini = 0.0\nsamples = 1\nvalue = [1, 0]"] ;
71 -> 73 ;
74 [label="gini = 0.0\nsamples = 1\nvalue = [1, 0]"] ;
70 -> 74 ;
75 [label="X[6] <= 3.5\ngini = 0.188\nsamples = 38\nvalue = [4, 34]"] ;
67 -> 75 ;
76 [label="X[12] <= 42.5\ngini = 0.149\nsamples = 37\nvalue = [3, 34]"] ;
75 -> 76 ;
77 [label="gini = 0.0\nsamples = 27\nvalue = [0, 27]"] ;
76 -> 77 ;
78 [label="X[12] <= 44.5\ngini = 0.42\nsamples = 10\nvalue = [3, 7]"] ;
76 -> 78 ;
79 [label="gini = 0.0\nsamples = 2\nvalue = [2, 0]"] ;
78 -> 79 ;
80 [label="X[5] <= 3.5\ngini = 0.219\nsamples = 8\nvalue = [1, 7]"] ;
78 -> 80 ;
81 [label="gini = 0.0\nsamples = 7\nvalue = [0, 7]"] ;
80 -> 81 ;
82 [label="gini = 0.0\nsamples = 1\nvalue = [1, 0]"] ;
80 -> 82 ;
83 [label="gini = 0.0\nsamples = 1\nvalue = [1, 0]"] ;
75 -> 83 ;
84 [label="X[1] <= 43.5\ngini = 0.487\nsamples = 428\nvalue = [180, 248]"] ;
0 -> 84 [labeldistance=2.5, labelangle=-45, headlabel="False"] ;
85 [label="X[1] <= 8.5\ngini = 0.476\nsamples = 396\nvalue = [155, 241]"] ;
84 -> 85 ;
86 [label="X[2] <= 0.5\ngini = 0.188\nsamples = 38\nvalue = [4, 34]"] ;
85 -> 86 ;
87 [label="gini = 0.0\nsamples = 2\nvalue = [2, 0]"] ;
86 -> 87 ;
88 [label="X[4] <= 9286.0\ngini = 0.105\nsamples = 36\nvalue = [2, 34]"] ;
86 -> 88 ;
89 [label="X[4] <= 3015.5\ngini = 0.056\nsamples = 35\nvalue = [1, 34]"] ;
88 -> 89 ;
90 [label="gini = 0.0\nsamples = 32\nvalue = [0, 32]"] ;
89 -> 90 ;
91 [label="X[3] <= 3.0\ngini = 0.444\nsamples = 3\nvalue = [1, 2]"] ;
89 -> 91 ;
92 [label="gini = 0.0\nsamples = 2\nvalue = [0, 2]"] ;
91 -> 92 ;
93 [label="gini = 0.0\nsamples = 1\nvalue = [1, 0]"] ;
91 -> 93 ;
94 [label="gini = 0.0\nsamples = 1\nvalue = [1, 0]"] ;
88 -> 94 ;
95 [label="X[4] <= 1381.5\ngini = 0.488\nsamples = 358\nvalue = [151, 207]"] ;
85 -> 95 ;
96 [label="X[11] <= 2.5\ngini = 0.496\nsamples = 101\nvalue = [55, 46]"] ;
95 -> 96 ;
97 [label="X[1] <= 22.5\ngini = 0.489\nsamples = 73\nvalue = [31, 42]"] ;
96 -> 97 ;
98 [label="X[4] <= 773.5\ngini = 0.461\nsamples = 61\nvalue = [22, 39]"] ;
97 -> 98 ;
99 [label="X[4] <= 590.0\ngini = 0.488\nsamples = 19\nvalue = [11, 8]"] ;
98 -> 99 ;
100 [label="gini = 0.0\nsamples = 4\nvalue = [0, 4]"] ;
99 -> 100 ;
101 [label="X[0] <= 1.5\ngini = 0.391\nsamples = 15\nvalue = [11, 4]"] ;
99 -> 101 ;
102 [label="X[4] <= 760.0\ngini = 0.444\nsamples = 3\nvalue = [1, 2]"] ;
101 -> 102 ;
103 [label="gini = 0.0\nsamples = 2\nvalue = [0, 2]"] ;
102 -> 103 ;
104 [label="gini = 0.0\nsamples = 1\nvalue = [1, 0]"] ;
102 -> 104 ;
105 [label="X[14] <= 1.5\ngini = 0.278\nsamples = 12\nvalue = [10, 2]"] ;
101 -> 105 ;
106 [label="X[12] <= 37.5\ngini = 0.165\nsamples = 11\nvalue = [10, 1]"] ;
105 -> 106 ;
107 [label="gini = 0.0\nsamples = 9\nvalue = [9, 0]"] ;
106 -> 107 ;
108 [label="X[4] <= 705.0\ngini = 0.5\nsamples = 2\nvalue = [1, 1]"] ;
106 -> 108 ;
109 [label="gini = 0.0\nsamples = 1\nvalue = [0, 1]"] ;
108 -> 109 ;
110 [label="gini = 0.0\nsamples = 1\nvalue = [1, 0]"] ;
108 -> 110 ;
111 [label="gini = 0.0\nsamples = 1\nvalue = [0, 1]"] ;
105 -> 111 ;
112 [label="X[3] <= 7.5\ngini = 0.387\nsamples = 42\nvalue = [11, 31]"] ;
98 -> 112 ;
113 [label="X[3] <= 4.5\ngini = 0.326\nsamples = 39\nvalue = [8, 31]"] ;
112 -> 113 ;
114 [label="X[12] <= 27.5\ngini = 0.472\nsamples = 21\nvalue = [8, 13]"] ;
113 -> 114 ;
115 [label="gini = 0.0\nsamples = 6\nvalue = [0, 6]"] ;
114 -> 115 ;
116 [label="X[8] <= 2.5\ngini = 0.498\nsamples = 15\nvalue = [8, 7]"] ;
114 -> 116 ;
117 [label="X[1] <= 9.5\ngini = 0.219\nsamples = 8\nvalue = [7, 1]"] ;
116 -> 117 ;
118 [label="gini = 0.0\nsamples = 1\nvalue = [0, 1]"] ;
117 -> 118 ;
119 [label="gini = 0.0\nsamples = 7\nvalue = [7, 0]"] ;
117 -> 119 ;
120 [label="X[12] <= 37.5\ngini = 0.245\nsamples = 7\nvalue = [1, 6]"] ;
116 -> 120 ;
121 [label="gini = 0.0\nsamples = 1\nvalue = [1, 0]"] ;
120 -> 121 ;
122 [label="gini = 0.0\nsamples = 6\nvalue = [0, 6]"] ;
120 -> 122 ;
123 [label="gini = 0.0\nsamples = 18\nvalue = [0, 18]"] ;
113 -> 123 ;
124 [label="gini = 0.0\nsamples = 3\nvalue = [3, 0]"] ;
112 -> 124 ;
125 [label="X[18] <= 0.5\ngini = 0.375\nsamples = 12\nvalue = [9, 3]"] ;
97 -> 125 ;
126 [label="gini = 0.0\nsamples = 9\nvalue = [9, 0]"] ;
125 -> 126 ;
127 [label="gini = 0.0\nsamples = 3\nvalue = [0, 3]"] ;
125 -> 127 ;
128 [label="X[10] <= 1.5\ngini = 0.245\nsamples = 28\nvalue = [24, 4]"] ;
96 -> 128 ;
129 [label="X[12] <= 24.0\ngini = 0.444\nsamples = 3\nvalue = [1, 2]"] ;
128 -> 129 ;
130 [label="gini = 0.0\nsamples = 1\nvalue = [1, 0]"] ;
129 -> 130 ;
131 [label="gini = 0.0\nsamples = 2\nvalue = [0, 2]"] ;
129 -> 131 ;
132 [label="X[12] <= 64.0\ngini = 0.147\nsamples = 25\nvalue = [23, 2]"] ;
128 -> 132 ;
133 [label="X[1] <= 10.5\ngini = 0.08\nsamples = 24\nvalue = [23, 1]"] ;
132 -> 133 ;
134 [label="X[0] <= 1.5\ngini = 0.444\nsamples = 3\nvalue = [2, 1]"] ;
133 -> 134 ;
135 [label="gini = 0.0\nsamples = 1\nvalue = [0, 1]"] ;
134 -> 135 ;
136 [label="gini = 0.0\nsamples = 2\nvalue = [2, 0]"] ;
134 -> 136 ;
137 [label="gini = 0.0\nsamples = 21\nvalue = [21, 0]"] ;
133 -> 137 ;
138 [label="gini = 0.0\nsamples = 1\nvalue = [0, 1]"] ;
132 -> 138 ;
139 [label="X[0] <= 2.5\ngini = 0.468\nsamples = 257\nvalue = [96, 161]"] ;
95 -> 139 ;
140 [label="X[4] <= 8150.5\ngini = 0.481\nsamples = 233\nvalue = [94, 139]"] ;
139 -> 140 ;
141 [label="X[2] <= 0.5\ngini = 0.471\nsamples = 216\nvalue = [82, 134]"] ;
140 -> 141 ;
142 [label="X[12] <= 23.0\ngini = 0.408\nsamples = 14\nvalue = [10, 4]"] ;
141 -> 142 ;
143 [label="gini = 0.0\nsamples = 3\nvalue = [0, 3]"] ;
142 -> 143 ;
144 [label="X[1] <= 30.0\ngini = 0.165\nsamples = 11\nvalue = [10, 1]"] ;
142 -> 144 ;
145 [label="gini = 0.0\nsamples = 10\nvalue = [10, 0]"] ;
144 -> 145 ;
146 [label="gini = 0.0\nsamples = 1\nvalue = [0, 1]"] ;
144 -> 146 ;
147 [label="X[1] <= 26.5\ngini = 0.459\nsamples = 202\nvalue = [72, 130]"] ;
141 -> 147 ;
148 [label="X[13] <= 1.5\ngini = 0.426\nsamples = 153\nvalue = [47, 106]"] ;
147 -> 148 ;
149 [label="X[5] <= 2.5\ngini = 0.371\nsamples = 114\nvalue = [28, 86]"] ;
148 -> 149 ;
150 [label="X[4] <= 6308.0\ngini = 0.117\nsamples = 32\nvalue = [2, 30]"] ;
149 -> 150 ;
151 [label="X[2] <= 3.5\ngini = 0.062\nsamples = 31\nvalue = [1, 30]"] ;
150 -> 151 ;
152 [label="gini = 0.0\nsamples = 29\nvalue = [0, 29]"] ;
151 -> 152 ;
153 [label="X[4] <= 4213.0\ngini = 0.5\nsamples = 2\nvalue = [1, 1]"] ;
151 -> 153 ;
154 [label="gini = 0.0\nsamples = 1\nvalue = [1, 0]"] ;
153 -> 154 ;
155 [label="gini = 0.0\nsamples = 1\nvalue = [0, 1]"] ;
153 -> 155 ;
156 [label="gini = 0.0\nsamples = 1\nvalue = [1, 0]"] ;
150 -> 156 ;
157 [label="X[4] <= 5306.5\ngini = 0.433\nsamples = 82\nvalue = [26, 56]"] ;
149 -> 157 ;
158 [label="X[4] <= 3915.5\ngini = 0.459\nsamples = 70\nvalue = [25, 45]"] ;
157 -> 158 ;
159 [label="X[10] <= 3.5\ngini = 0.414\nsamples = 58\nvalue = [17, 41]"] ;
158 -> 159 ;
160 [label="X[6] <= 1.5\ngini = 0.463\nsamples = 44\nvalue = [16, 28]"] ;
159 -> 160 ;
161 [label="X[15] <= 1.5\ngini = 0.365\nsamples = 25\nvalue = [6, 19]"] ;
160 -> 161 ;
162 [label="X[12] <= 24.5\ngini = 0.255\nsamples = 20\nvalue = [3, 17]"] ;
161 -> 162 ;
163 [label="X[1] <= 15.0\ngini = 0.444\nsamples = 6\nvalue = [2, 4]"] ;
162 -> 163 ;
164 [label="gini = 0.0\nsamples = 4\nvalue = [0, 4]"] ;
163 -> 164 ;
165 [label="gini = 0.0\nsamples = 2\nvalue = [2, 0]"] ;
163 -> 165 ;
166 [label="X[12] <= 35.5\ngini = 0.133\nsamples = 14\nvalue = [1, 13]"] ;
162 -> 166 ;
167 [label="gini = 0.0\nsamples = 11\nvalue = [0, 11]"] ;
166 -> 167 ;
168 [label="X[11] <= 1.0\ngini = 0.444\nsamples = 3\nvalue = [1, 2]"] ;
166 -> 168 ;
169 [label="gini = 0.0\nsamples = 1\nvalue = [1, 0]"] ;
168 -> 169 ;
170 [label="gini = 0.0\nsamples = 2\nvalue = [0, 2]"] ;
168 -> 170 ;
171 [label="X[8] <= 2.5\ngini = 0.48\nsamples = 5\nvalue = [3, 2]"] ;
161 -> 171 ;
172 [label="gini = 0.0\nsamples = 3\nvalue = [3, 0]"] ;
171 -> 172 ;
173 [label="gini = 0.0\nsamples = 2\nvalue = [0, 2]"] ;
171 -> 173 ;
174 [label="X[3] <= 3.5\ngini = 0.499\nsamples = 19\nvalue = [10, 9]"] ;
160 -> 174 ;
175 [label="X[10] <= 2.5\ngini = 0.375\nsamples = 8\nvalue = [2, 6]"] ;
174 -> 175 ;
176 [label="X[2] <= 2.0\ngini = 0.444\nsamples = 3\nvalue = [2, 1]"] ;
175 -> 176 ;
177 [label="gini = 0.0\nsamples = 1\nvalue = [0, 1]"] ;
176 -> 177 ;
178 [label="gini = 0.0\nsamples = 2\nvalue = [2, 0]"] ;
176 -> 178 ;
179 [label="gini = 0.0\nsamples = 5\nvalue = [0, 5]"] ;
175 -> 179 ;
180 [label="X[10] <= 1.5\ngini = 0.397\nsamples = 11\nvalue = [8, 3]"] ;
174 -> 180 ;
181 [label="X[7] <= 3.0\ngini = 0.48\nsamples = 5\nvalue = [2, 3]"] ;
180 -> 181 ;
182 [label="gini = 0.0\nsamples = 2\nvalue = [2, 0]"] ;
181 -> 182 ;
183 [label="gini = 0.0\nsamples = 3\nvalue = [0, 3]"] ;
181 -> 183 ;
184 [label="gini = 0.0\nsamples = 6\nvalue = [6, 0]"] ;
180 -> 184 ;
185 [label="X[4] <= 1951.0\ngini = 0.133\nsamples = 14\nvalue = [1, 13]"] ;
159 -> 185 ;
186 [label="X[4] <= 1914.0\ngini = 0.375\nsamples = 4\nvalue = [1, 3]"] ;
185 -> 186 ;
187 [label="gini = 0.0\nsamples = 3\nvalue = [0, 3]"] ;
186 -> 187 ;
188 [label="gini = 0.0\nsamples = 1\nvalue = [1, 0]"] ;
186 -> 188 ;
189 [label="gini = 0.0\nsamples = 10\nvalue = [0, 10]"] ;
185 -> 189 ;
190 [label="X[12] <= 24.5\ngini = 0.444\nsamples = 12\nvalue = [8, 4]"] ;
158 -> 190 ;
191 [label="gini = 0.0\nsamples = 2\nvalue = [0, 2]"] ;
190 -> 191 ;
192 [label="X[10] <= 1.5\ngini = 0.32\nsamples = 10\nvalue = [8, 2]"] ;
190 -> 192 ;
193 [label="gini = 0.0\nsamples = 1\nvalue = [0, 1]"] ;
192 -> 193 ;
194 [label="X[7] <= 3.5\ngini = 0.198\nsamples = 9\nvalue = [8, 1]"] ;
192 -> 194 ;
195 [label="gini = 0.0\nsamples = 7\nvalue = [7, 0]"] ;
194 -> 195 ;
196 [label="X[1] <= 21.0\ngini = 0.5\nsamples = 2\nvalue = [1, 1]"] ;
194 -> 196 ;
197 [label="gini = 0.0\nsamples = 1\nvalue = [1, 0]"] ;
196 -> 197 ;
198 [label="gini = 0.0\nsamples = 1\nvalue = [0, 1]"] ;
196 -> 198 ;
199 [label="X[4] <= 7619.5\ngini = 0.153\nsamples = 12\nvalue = [1, 11]"] ;
157 -> 199 ;
200 [label="gini = 0.0\nsamples = 10\nvalue = [0, 10]"] ;
199 -> 200 ;
201 [label="X[18] <= 0.5\ngini = 0.5\nsamples = 2\nvalue = [1, 1]"] ;
199 -> 201 ;
202 [label="gini = 0.0\nsamples = 1\nvalue = [0, 1]"] ;
201 -> 202 ;
203 [label="gini = 0.0\nsamples = 1\nvalue = [1, 0]"] ;
201 -> 203 ;
204 [label="X[2] <= 3.5\ngini = 0.5\nsamples = 39\nvalue = [19, 20]"] ;
148 -> 204 ;
205 [label="X[7] <= 2.5\ngini = 0.484\nsamples = 34\nvalue = [14, 20]"] ;
204 -> 205 ;
206 [label="X[4] <= 2059.5\ngini = 0.337\nsamples = 14\nvalue = [3, 11]"] ;
205 -> 206 ;
207 [label="gini = 0.0\nsamples = 2\nvalue = [2, 0]"] ;
206 -> 207 ;
208 [label="X[11] <= 0.5\ngini = 0.153\nsamples = 12\nvalue = [1, 11]"] ;
206 -> 208 ;
209 [label="gini = 0.0\nsamples = 1\nvalue = [1, 0]"] ;
208 -> 209 ;
210 [label="gini = 0.0\nsamples = 11\nvalue = [0, 11]"] ;
208 -> 210 ;
211 [label="X[4] <= 1870.0\ngini = 0.495\nsamples = 20\nvalue = [11, 9]"] ;
205 -> 211 ;
212 [label="gini = 0.0\nsamples = 4\nvalue = [0, 4]"] ;
211 -> 212 ;
213 [label="X[4] <= 5551.5\ngini = 0.43\nsamples = 16\nvalue = [11, 5]"] ;
211 -> 213 ;
214 [label="X[12] <= 62.5\ngini = 0.337\nsamples = 14\nvalue = [11, 3]"] ;
213 -> 214 ;
215 [label="X[4] <= 2662.0\ngini = 0.26\nsamples = 13\nvalue = [11, 2]"] ;
214 -> 215 ;
216 [label="X[18] <= 0.5\ngini = 0.444\nsamples = 6\nvalue = [4, 2]"] ;
215 -> 216 ;
217 [label="gini = 0.0\nsamples = 4\nvalue = [4, 0]"] ;
216 -> 217 ;
218 [label="gini = 0.0\nsamples = 2\nvalue = [0, 2]"] ;
216 -> 218 ;
219 [label="gini = 0.0\nsamples = 7\nvalue = [7, 0]"] ;
215 -> 219 ;
220 [label="gini = 0.0\nsamples = 1\nvalue = [0, 1]"] ;
214 -> 220 ;
221 [label="gini = 0.0\nsamples = 2\nvalue = [0, 2]"] ;
213 -> 221 ;
222 [label="gini = 0.0\nsamples = 5\nvalue = [5, 0]"] ;
204 -> 222 ;
223 [label="X[7] <= 3.5\ngini = 0.5\nsamples = 49\nvalue = [25, 24]"] ;
147 -> 223 ;
224 [label="X[12] <= 26.5\ngini = 0.423\nsamples = 23\nvalue = [7, 16]"] ;
223 -> 224 ;
225 [label="X[5] <= 1.5\ngini = 0.469\nsamples = 8\nvalue = [5, 3]"] ;
224 -> 225 ;
226 [label="X[9] <= 1.0\ngini = 0.375\nsamples = 4\nvalue = [1, 3]"] ;
225 -> 226 ;
227 [label="gini = 0.0\nsamples = 1\nvalue = [1, 0]"] ;
226 -> 227 ;
228 [label="gini = 0.0\nsamples = 3\nvalue = [0, 3]"] ;
226 -> 228 ;
229 [label="gini = 0.0\nsamples = 4\nvalue = [4, 0]"] ;
225 -> 229 ;
230 [label="X[6] <= 2.0\ngini = 0.231\nsamples = 15\nvalue = [2, 13]"] ;
224 -> 230 ;
231 [label="gini = 0.0\nsamples = 12\nvalue = [0, 12]"] ;
230 -> 231 ;
232 [label="X[16] <= 1.5\ngini = 0.444\nsamples = 3\nvalue = [2, 1]"] ;
230 -> 232 ;
233 [label="gini = 0.0\nsamples = 1\nvalue = [0, 1]"] ;
232 -> 233 ;
234 [label="gini = 0.0\nsamples = 2\nvalue = [2, 0]"] ;
232 -> 234 ;
235 [label="X[4] <= 3713.0\ngini = 0.426\nsamples = 26\nvalue = [18, 8]"] ;
223 -> 235 ;
236 [label="X[6] <= 2.5\ngini = 0.5\nsamples = 16\nvalue = [8, 8]"] ;
235 -> 236 ;
237 [label="X[10] <= 1.5\ngini = 0.375\nsamples = 8\nvalue = [6, 2]"] ;
236 -> 237 ;
238 [label="gini = 0.0\nsamples = 2\nvalue = [0, 2]"] ;
237 -> 238 ;
239 [label="gini = 0.0\nsamples = 6\nvalue = [6, 0]"] ;
237 -> 239 ;
240 [label="X[15] <= 1.5\ngini = 0.375\nsamples = 8\nvalue = [2, 6]"] ;
236 -> 240 ;
241 [label="X[0] <= 1.5\ngini = 0.444\nsamples = 3\nvalue = [2, 1]"] ;
240 -> 241 ;
242 [label="gini = 0.0\nsamples = 1\nvalue = [0, 1]"] ;
241 -> 242 ;
243 [label="gini = 0.0\nsamples = 2\nvalue = [2, 0]"] ;
241 -> 243 ;
244 [label="gini = 0.0\nsamples = 5\nvalue = [0, 5]"] ;
240 -> 244 ;
245 [label="gini = 0.0\nsamples = 10\nvalue = [10, 0]"] ;
235 -> 245 ;
246 [label="X[2] <= 2.5\ngini = 0.415\nsamples = 17\nvalue = [12, 5]"] ;
140 -> 246 ;
247 [label="X[7] <= 1.5\ngini = 0.469\nsamples = 8\nvalue = [3, 5]"] ;
246 -> 247 ;
248 [label="gini = 0.0\nsamples = 3\nvalue = [0, 3]"] ;
247 -> 248 ;
249 [label="X[12] <= 38.5\ngini = 0.48\nsamples = 5\nvalue = [3, 2]"] ;
247 -> 249 ;
250 [label="X[11] <= 2.0\ngini = 0.444\nsamples = 3\nvalue = [1, 2]"] ;
249 -> 250 ;
251 [label="gini = 0.0\nsamples = 2\nvalue = [0, 2]"] ;
250 -> 251 ;
252 [label="gini = 0.0\nsamples = 1\nvalue = [1, 0]"] ;
250 -> 252 ;
253 [label="gini = 0.0\nsamples = 2\nvalue = [2, 0]"] ;
249 -> 253 ;
254 [label="gini = 0.0\nsamples = 9\nvalue = [9, 0]"] ;
246 -> 254 ;
255 [label="X[12] <= 61.0\ngini = 0.153\nsamples = 24\nvalue = [2, 22]"] ;
139 -> 255 ;
256 [label="X[17] <= 1.5\ngini = 0.087\nsamples = 22\nvalue = [1, 21]"] ;
255 -> 256 ;
257 [label="gini = 0.0\nsamples = 20\nvalue = [0, 20]"] ;
256 -> 257 ;
258 [label="X[6] <= 1.0\ngini = 0.5\nsamples = 2\nvalue = [1, 1]"] ;
256 -> 258 ;
259 [label="gini = 0.0\nsamples = 1\nvalue = [1, 0]"] ;
258 -> 259 ;
260 [label="gini = 0.0\nsamples = 1\nvalue = [0, 1]"] ;
258 -> 260 ;
261 [label="X[14] <= 0.5\ngini = 0.5\nsamples = 2\nvalue = [1, 1]"] ;
255 -> 261 ;
262 [label="gini = 0.0\nsamples = 1\nvalue = [0, 1]"] ;
261 -> 262 ;
263 [label="gini = 0.0\nsamples = 1\nvalue = [1, 0]"] ;
261 -> 263 ;
264 [label="X[5] <= 0.5\ngini = 0.342\nsamples = 32\nvalue = [25, 7]"] ;
84 -> 264 ;
265 [label="gini = 0.0\nsamples = 3\nvalue = [0, 3]"] ;
264 -> 265 ;
266 [label="X[10] <= 1.5\ngini = 0.238\nsamples = 29\nvalue = [25, 4]"] ;
264 -> 266 ;
267 [label="X[16] <= 2.5\ngini = 0.444\nsamples = 3\nvalue = [1, 2]"] ;
266 -> 267 ;
268 [label="gini = 0.0\nsamples = 2\nvalue = [0, 2]"] ;
267 -> 268 ;
269 [label="gini = 0.0\nsamples = 1\nvalue = [1, 0]"] ;
267 -> 269 ;
270 [label="X[6] <= 3.5\ngini = 0.142\nsamples = 26\nvalue = [24, 2]"] ;
266 -> 270 ;
271 [label="X[17] <= 1.5\ngini = 0.077\nsamples = 25\nvalue = [24, 1]"] ;
270 -> 271 ;
272 [label="gini = 0.0\nsamples = 22\nvalue = [22, 0]"] ;
271 -> 272 ;
273 [label="X[11] <= 0.5\ngini = 0.444\nsamples = 3\nvalue = [2, 1]"] ;
271 -> 273 ;
274 [label="gini = 0.0\nsamples = 1\nvalue = [0, 1]"] ;
273 -> 274 ;
275 [label="gini = 0.0\nsamples = 2\nvalue = [2, 0]"] ;
273 -> 275 ;
276 [label="gini = 0.0\nsamples = 1\nvalue = [0, 1]"] ;
270 -> 276 ;
}